-1.993911513512193201e+00 -2.996508755558708437e+00 2.990391286858439912e+00 -1.999326252849785490e+00 -1.798043307561059123e-03 -3.026511754982129876e+00 -9.952265666720538917e-01 7.000457919220719916e+00 9.891924056487795269e-01 -8.007175610157744927e+00 -5.003651843444396619e+00 5.998342974464528687e+00 -6.992238499342175118e+00 5.987217121529892161e+00 -9.874755917710174025e-01 1.700756309249907972e+01
-3.015644900983182275e+00 -1.010672419735039629e+00 2.013415206859196172e+00 -1.003104244907891296e+00 -3.991549592389567636e+00 -2.007809188273115275e+00 -9.967274957846763428e-01 5.135520237111279584e-03 1.986806754571723843e-02 1.800993416043512951e+01 -1.300113380226447468e+01 9.982590789790481978e-01 -1.347339515515333375e-02 -5.995835911898859116e+00 -3.996386057212924392e+00 -1.700439427645818924e+01
9.845956846309382726e-01 -2.000886798610576722e+00 -1.010300659088202657e+00 -1.995815933960070065e+00 -1.992317039545727697e+00 1.294908648556935236e-02 -2.882800627333281795e-02 -9.012877512596165985e+00 -4.995989930219986164e+00 -1.799709520500778126e+01 7.995675160037912121e+00 -1.899999663576259934e+01 -1.984188076771859599e+00 -5.001315873165155246e+00 -1.998997847018553653e+00 6.997411183687727743e+00
-2.997121875302632077e+00 -1.005156216740858088e+00 1.997880267683467714e+00 -1.006680820455126080e+00 9.367990076256882404e-03 -1.002347450287794706e+00 -1.800153881747703011e+01 9.916916698490938487e-01 -1.005459566932429993e+00 2.010371152538810158e+00 -9.998326786436466662e+00 -1.598791919926436833e+01 6.009834209473722488e+00 1.065079452604322796e-02 -1.001958875511242297e+00 5.976215471212091401e+00
-1.003826928167380839e+00 -9.899666136350748769e-01 1.004111687756640947e+00 -1.006424591620189712e+00 -1.346456620185065844e-03 -2.015552065808541293e+00 2.199521775277126778e+01 -1.999484819731615293e+00 2.016584145024375108e+00 -4.994002352707032522e+00 6.004178791111609570e+00 6.013677976800529734e+00 6.008306554198149740e+00 -5.993398991023489941e+00 -1.003785599299964915e+00 1.000310058655553469e+01
-2.008099209809346419e+00 -1.997198190524643202e+00 -1.003650550739301650e+00 -1.001873469754440249e+00 -4.995413362198471319e+00 -9.871235471172231657e-01 -7.992834154283076309e+00 -1.994485999886360883e+00 1.003774688010151017e+00 -1.007386142063987577e+00 -9.990546313811693224e+00 1.100898967727592925e+01 -7.987185823501725679e+00 -2.007690632806328423e+00 -1.475730468126945638e-02 -1.799897247076268414e+01
-2.013083002591792958e+00 -9.960489575624871250e-01 3.996712381598432451e+00 -9.928832632577440087e-01 1.413481612559941425e-02 -3.001155651013702741e+00 -6.993188958650310205e+00 3.008473674790307584e+00 -6.996119046558709975e+00 -4.996873570417012189e+00 -1.998667634544172067e+00 1.099442879016719843e+01 -3.998082585242753062e+00 1.100782205581933937e+01 -1.023758335966752586e+00 -2.015933696837893585e+00
-1.004343900373214415e+00 -2.008580040112591725e+00 9.912083457286016142e-01 -2.999101370321669791e+00 -2.998196652960492425e+00 -2.004535962008922034e+00 2.003230374438855321e+00 -2.004364947666928742e+00 -9.012730870675977002e+00 1.399567975196564618e+01 -7.009584850094639386e+00 -1.198810327572933865e+01 -1.301641274980839569e+01 -1.499902757899426931e+01 -2.995247275897175321e+00 6.007313717221936855e+00
-4.011339897760928253e+00 -1.992406937929325439e+00 -4.550639133222844634e-04 -1.990440617202657858e+00 -9.871605003722497829e-01 -1.989884469772362330e+00 -3.981933443771340286e+00 -8.002161410981585732e+00 1.201426960517442133e+01 -1.401162620108722479e+01 2.001697342947400315e+00 -3.002719984827687760e+00 1.599171183566979160e+01 -7.005110709836316119e+00 -1.981912272475770953e+00 -2.100206922183208746e+01
-3.998258617074791577e+00 -1.997131989454812739e+00 2.991431856139936230e+00 -2.001824566582843801e+00 -1.994164717927120911e+00 -3.005263933828552503e+00 -9.005670761973968652e+00 1.401484355581967733e+01 -7.989196517768723638e+00 -5.006897554837321351e+00 -3.002160358827435260e+00 9.009800013936397178e+00 -4.004808703734498820e+00 -1.199933554269776437e+01 -2.009457273186541659e+00 4.775532945022309406e-03
-2.019588801182487181e+00 -2.999973996800350928e+00 1.002314783903193174e+00 -1.987374782999940415e+00 -9.904354304558657951e-01 -2.006150204021179384e+00 -4.997199966060004606e+00 -1.399585179745431063e+01 -1.399429850781592144e+01 5.005237722642910114e+00 6.005808664472384706e+00 -7.999987591130429010e+00 1.500585234676266211e+01 1.099779336579790723e+01 -2.007820692097208592e+00 4.000538684143394974e+00
-1.997467745189579258e+00 -1.998516863878485594e+00 1.000982760411474715e+00 -1.995960859913725738e+00 -3.002840565356299507e+00 -1.997493200924018275e+00 4.991173327610754384e+00 -8.003788820698556350e+00 1.701218895066373094e+01 -3.997941441348849878e+00 -1.000053755914040110e+01 -6.012217856595479581e+00 -1.798590484142165735e+01 -6.004333293696650031e+00 -3.017452153059547726e+00 -3.996534684266956461e+00
-2.009379367020931006e+00 -1.374636731558087632e-02 2.990788941793283140e+00 -2.174994759433390712e-03 -2.000154032517730496e+00 -1.997361427034626935e+00 -4.017460508828770038e+00 2.002965539232622660e+00 -7.993465972562236566e+00 -6.008280860565957227e+00 -9.988970251679125667e-01 1.298653952348064777e+01 -4.005762804146744571e+00 -4.004326943137391126e+00 -7.701756365154466266e-03 -2.998190651361874792e+00
-9.921833569788569562e-01 -2.004240785759650478e+00 1.027491051446092651e+00 -2.001098836567587469e+00 -9.968504231083366030e-01 -9.978676996847897218e-01 2.996074018541353468e+00 3.037460330877372883e-03 -1.801674595253966160e+01 -7.426115644497244261e-03 -3.994880919191909019e+00 -1.900180217232430024e+01 -4.009612177204773253e+00 1.999468153469224241e+00 -3.003502567862628592e+00 -3.991332268422064899e+00
-1.987053716570726047e+00 -3.987010931616583598e+00 1.009731567074858560e+00 -9.945786504813671769e-01 -9.949052098163247981e-01 -1.004697307027609732e+00 -2.981783528509124537e+00 -5.984937257869972882e+00 1.797939534091368330e+01 1.993823768760272230e+00 6.378284973974857053e-03 -7.013025383311298100e+00 1.017120464773935140e+00 -6.020879497914112477e+00 -1.017946611141028690e+00 1.003842648094131818e+00
